#ifndef _Network9_100_20_h_
#define _Network9_100_20_h_
/*
 * Network9-100-20.h
 *
 * Copyright (C) 2016,2017 Paul Boersma, Johnny Ip, Toni Gojani
 * version 2017-09-01
 *
 * This code is part of OpenVokaturi.
 *
 * OpenVokaturi is free software; you can redistribute it and/or modify
 * it under the terms of the GNU General Public License as published by
 * the Free Software Foundation; either version 3 of the License, or (at
 * your option) any later version.
 *
 * OpenVokaturi is distributed in the hope that it will be useful, but
 * WITHOUT ANY WARRANTY; without even the implied warranty of
 * MERCHANTABILITY or FITNESS FOR A PARTICULAR PURPOSE.
 * See the GNU General Public License for more details.
 *
 * You should have received a copy of the GNU General Public License
 * along with this software. If not, see http://www.gnu.org/licenses/.
 */

#include "Cues9.h"
#include "Emotions.h"

#define NUMBER_OF_HIDDEN1  100
#define NUMBER_OF_HIDDEN2  20

/*
	A network with 3125 parameters:

static void buildNetwork (Network *network) {
	Network_addInput (network, NUMBER_OF_CUES9);
	Network_addFullyConnected (network, NUMBER_OF_HIDDEN1);
	Network_addRectifier (network);
	Network_addFullyConnected (network, NUMBER_OF_HIDDEN2);
	Network_addRectifier (network);
	Network_addFullyConnected (network, NUMBER_OF_EMOTIONS);
	Network_addSoftmaxCost (network);
*/
// 8 threads, minibatch size 80, 200000 data points
// initial random weights 0.010000
// learning rate scheme: 0.01 * 8 / pow (0.0005 * idatum + 1.0, 0.3)
// 768 files

/*
	The data below are the network parameters generated by Train9.c.
*/

static double bias1 [NUMBER_OF_HIDDEN1] = { 0.073683, -0.016287, 0.022943, -0.190140, -0.136971, 0.153711, -0.064004, -0.147866, 0.267668, -0.467633, 0.058443, -0.007224, -0.159821, -0.073288, -0.344073, 0.044786, -0.137619, -0.102266, -0.229073, 0.006170, -0.139893, -0.148405, -0.408166, -0.335867, 0.043917, -0.608726, 0.147692, -0.121811, -0.431128, 0.235615, -0.113478, -0.169846, 0.040913, -0.573650, -0.377356, 0.291315, -0.304076, 0.170474, 0.007361, -0.702873, -0.102521, 0.007648, -0.649555, 0.057380, -0.490508, -0.794604, 0.143331, -0.059909, -0.227117, -0.550688, 0.273932, -0.414345, 0.055183, -0.343737, -0.305364, -0.017916, -0.419247, -0.134804, -0.032149, -0.388942, -0.262914, -0.135598, 0.053516, 0.086862, -0.206125, 0.208670, 0.260508, 0.110189, -0.364196, -0.219224, -0.067703, 0.014517, -0.259823, -0.026807, -0.133154, 0.291379, 0.031816, 0.399558, -0.456331, -0.513932, 0.056784, -0.394122, -0.013814, -0.106140, -0.093529, 0.132236, -0.183165, -0.080022, -0.816693, -0.461466, -0.591712, 0.018297, -0.043708, -0.104628, -0.001061, -1.009362, -0.553869, -0.296764, -0.220981, 0.008305 };
static double weightT1 [NUMBER_OF_HIDDEN1] [NUMBER_OF_CUES9] = {
	{ 0.206199, 0.043194, -0.054441, -0.092799, -0.031202, 0.013963, -0.064597, 0.302347, 0.105140 },
	{ -0.372893, 0.192163, -0.000800, -0.146563, 0.057495, 0.089956, 0.059120, -0.054724, -0.014247 },
	{ -1.292775, 0.066507, 0.255673, 0.028247, 0.228369, -0.014468, -0.263048, 0.275746, -0.116475 },
	{ -0.278894, -0.094154, -0.033170, -0.281224, -0.055054, 0.002619, 0.017664, 0.227272, -0.087661 },
	{ -0.281946, 0.327879, -0.454516, 0.090877, 0.174461, 0.229958, -0.346475, -0.066159, -0.259430 },
	{ 0.096404, 0.270631, 0.309206, 0.073733, 0.550600, -0.184086, -0.087753, -0.100966, 0.325162 },
	{ -0.564589, -0.485609, -0.292283, -0.125102, 0.395178, 0.183348, 0.187712, 0.632118, 0.259293 },
	{ -0.292636, 0.071366, -0.063906, 0.143916, 0.105538, 0.146603, -0.084258, -0.249948, 0.017388 },
	{ -0.757652, 0.214550, -0.554578, 0.113868, 0.248763, 0.000170, 0.116535, -0.426812, 0.175608 },
	{ -0.486912, -0.061589, 0.210713, 0.003165, 0.339695, -0.053911, -0.063982, -0.054064, 0.245095 },
	{ -0.009845, -0.415708, -0.255563, 0.067531, 0.253961, -0.075142, -0.249009, 0.524970, -0.126550 },
	{ -0.317009, 0.930333, 0.255637, 0.293515, 0.068413, -0.489842, 0.261624, 0.423586, -0.120781 },
	{ -0.412372, 0.085196, 0.158543, 0.004333, -0.017871, -0.003408, -0.015091, 0.029585, -0.162357 },
	{ -0.079407, -0.004305, 0.003423, -0.107936, -0.035501, 0.021359, 0.024341, -0.022272, -0.025094 },
	{ -0.022004, 0.089758, -0.175372, -0.081420, 0.074335, -0.283790, -0.194236, -0.261006, 0.723806 },
	{ 0.121097, 0.074351, 0.180051, -0.164842, -0.043522, 0.093141, -0.343601, 0.185523, -0.228428 },
	{ -0.092692, 0.025373, -0.037955, -0.202210, -0.059326, 0.071962, 0.028827, -0.048351, -0.052568 },
	{ -0.029893, -0.037235, 0.079801, -0.079170, -0.041586, -0.090651, 0.118785, -0.017656, 0.111167 },
	{ -0.789590, -0.961598, -0.167729, -0.129643, 0.427956, 0.398016, 0.067718, 0.530442, 0.440238 },
	{ -0.296819, 0.064997, 0.031728, 0.062041, 0.080208, -0.026245, -0.068740, 0.134788, -0.173866 },
	{ -0.323333, 0.114419, -0.150902, 0.214432, 0.137132, 0.117557, -0.113813, -0.192890, -0.084332 },
	{ -0.343666, -0.133319, 0.459169, -0.322918, 0.644381, 0.227436, -0.351832, 0.004711, 0.079643 },
	{ -0.149309, -0.040772, -0.273204, 0.241383, -0.087791, 0.256416, -0.486263, -0.241013, -0.096292 },
	{ -0.135316, 0.177697, -0.232479, 0.236246, 0.046220, 0.221848, -0.408690, 0.034174, -0.154091 },
	{ -0.210086, -0.395148, 0.044985, -0.038447, 0.695254, 0.085124, 0.117669, 0.113907, 0.001780 },
	{ 0.757747, 0.277018, -0.314964, -0.012479, 0.383784, 0.186017, -0.034501, -0.161525, -0.166783 },
	{ 0.025142, -0.023606, -0.097926, 0.003568, 0.130971, -0.091769, -0.011382, 0.279069, -0.064425 },
	{ -0.625505, 0.244326, 0.138244, -0.229603, -0.052190, 0.295138, 0.298712, -0.196736, -0.120610 },
	{ -0.814368, 0.134854, -0.009660, -0.682896, -0.127093, -0.071492, -0.099630, 0.191725, 0.227946 },
	{ 0.225841, 0.254535, -0.138143, -0.182272, -0.097651, 0.045161, -0.117098, 0.543185, 0.159674 },
	{ -0.335928, -0.007432, 0.089666, -0.139499, 0.127508, 0.039515, 0.140082, -0.138129, -0.044052 },
	{ -0.374179, 0.042898, 0.134933, -0.154505, -0.016779, -0.030303, 0.074160, -0.002989, -0.029120 },
	{ -0.553739, 0.158002, 0.403529, -0.096254, -0.023793, -0.145933, 0.058989, 0.072368, 0.023559 },
	{ -0.958753, 0.219467, 0.287522, -0.187577, -0.121691, 0.150247, 0.170098, -0.245571, -0.494879 },
	{ -0.818707, 0.104992, 0.275126, -0.195719, -0.053789, 0.018901, 0.079654, -0.020336, -0.237498 },
	{ 0.039666, 0.125590, 0.368266, -0.402116, -0.120607, 0.153706, 0.039412, 0.205713, 0.338113 },
	{ -0.126576, 0.137893, 0.222685, -0.164848, 0.237020, -0.136753, -0.141723, -0.052493, 0.111242 },
	{ -0.061366, 0.124269, 0.068686, -0.433239, -0.032099, 0.032196, -0.054176, 0.479491, 0.242054 },
	{ -0.424045, -0.122635, 0.225647, -0.051110, 0.184685, -0.179228, -0.002723, 0.875312, 0.349528 },
	{ -0.432340, 0.056617, 0.356317, -0.097046, 0.436528, -0.229407, -0.212759, -0.090330, 0.197309 },
	{ 0.011394, -0.148232, 0.135139, 0.182765, 0.252520, -0.123647, 0.197754, 0.369087, 0.112512 },
	{ 0.064711, 0.031502, -0.025542, -0.009715, 0.001583, -0.029114, 0.012941, 0.083403, 0.001139 },
	{ 0.830020, -0.709254, -0.383471, -0.242207, 0.055690, 0.234287, 0.259878, -0.752578, 0.380447 },
	{ 0.018568, -0.006926, 0.032759, -0.076085, -0.018471, 0.003152, 0.016296, 0.059413, 0.031663 },
	{ -0.631475, -0.103188, 0.250191, -0.071703, 0.411098, -0.026278, -0.015141, -0.051721, 0.277697 },
	{ 1.316432, 0.168136, -1.834489, 0.316317, -0.290702, -0.219193, 0.016893, 0.181867, 0.556085 },
	{ -0.599250, -0.103799, 0.512022, -0.315943, 0.225915, 0.099208, -0.005179, -0.122888, -0.302225 },
	{ -0.121139, -0.082023, 0.243409, 0.071444, 0.296475, -0.131403, -0.043959, 0.484439, 0.092660 },
	{ 0.521599, -0.008503, -0.375224, 0.364785, -0.007078, -0.202628, 0.153790, -0.045718, 0.012039 },
	{ -0.613128, -0.019218, -0.052362, -0.803674, -0.259662, 0.187879, 0.142241, -0.130622, -0.132864 },
	{ 0.497338, 0.237449, -0.228749, -0.162806, -0.088318, 0.082611, -0.223739, 0.781603, 0.166399 },
	{ -0.738916, 0.140614, 0.026534, 0.592899, 0.147642, 0.212224, -0.207160, -0.293958, -0.230901 },
	{ -0.959385, 0.324058, 0.758634, -0.363320, 0.019259, -0.270942, -0.075513, 0.253326, 0.318457 },
	{ 0.358932, -0.477057, -0.370160, -0.368840, 0.108199, -0.660541, 0.521061, -0.260126, 1.044342 },
	{ -0.436794, -0.145631, -0.029259, 0.290487, 0.169833, 0.139504, -0.197252, -0.133958, -0.004451 },
	{ -0.428125, 0.078003, 0.047595, 0.106621, 0.074169, -0.008411, -0.130713, 0.160986, -0.088133 },
	{ -0.518481, 0.273130, -0.059257, 0.301105, 0.008693, -0.325832, -0.319144, -0.060939, 0.504978 },
	{ 0.032735, 0.002250, 0.057818, 0.177900, -0.088868, 0.002356, 0.150513, 0.078657, 0.097606 },
	{ -0.070881, -0.073469, -0.086158, 0.035009, -0.005194, 0.104426, -0.095597, -0.004865, 0.047352 },
	{ -0.980150, -0.032333, -0.212302, 0.887128, 0.334278, 0.241212, -0.217217, -0.100388, -0.143109 },
	{ -0.328835, 0.368276, 0.210578, 0.230971, 0.009564, -0.485519, 0.113086, 0.141869, 0.352452 },
	{ -0.807232, -0.163486, -0.313206, 0.236398, 0.016029, 0.276761, -0.523166, -0.133895, 0.261965 },
	{ 0.386746, 0.069868, -0.045435, 0.098107, -0.307942, 0.147141, -0.010896, 0.185125, 0.129187 },
	{ 0.353022, 0.025875, -0.067087, 0.013070, -0.322011, 0.130660, -0.030242, 0.203675, 0.158284 },
	{ -0.299576, 0.355220, -0.070646, 0.285365, 0.011112, -0.020632, -0.537960, 0.004457, 0.288244 },
	{ -0.752112, -0.160272, 0.739368, -0.055639, 0.086313, 0.039959, 0.075924, 0.630079, 0.095037 },
	{ -0.110848, 0.271046, -0.173003, -0.048952, 0.013200, -0.126256, -0.041355, 0.542139, -0.037420 },
	{ -0.051222, 0.490372, 0.022194, -0.174480, -0.149911, 0.024357, -0.201226, 0.455400, 0.233127 },
	{ -0.105927, 0.185588, 0.257077, -0.209263, 0.269296, -0.131765, -0.185503, -0.076448, 0.084376 },
	{ -0.667161, 0.173848, 0.622864, -0.491356, -0.179103, -0.873603, 0.219867, 1.809242, 0.606836 },
	{ -0.407536, 0.199131, 0.028872, -0.186992, 0.021024, 0.151587, 0.087780, -0.065210, -0.023652 },
	{ -0.591054, 0.086130, 0.115652, -0.145369, 0.026111, 0.223254, -0.113020, -0.001454, 0.037782 },
	{ -0.450065, -0.058226, 0.162884, -0.153314, 0.260869, 0.023726, 0.113877, -0.046025, 0.116906 },
	{ 0.176694, -0.033883, 0.049540, 0.322790, -0.130905, 0.045217, 0.069823, -0.115641, 0.157812 },
	{ -0.115317, 0.135441, 0.191584, -0.239289, 0.106856, -0.114824, -0.193862, 0.034532, -0.005977 },
	{ -0.058359, 0.092245, -0.083697, -0.186258, -0.003969, -0.060409, -0.060804, 0.567770, 0.217256 },
	{ -0.229751, -0.468298, 1.062729, 0.273453, 0.187396, -1.240529, 0.227216, 0.003443, 0.897046 },
	{ 0.009453, -0.033390, 0.453440, -0.600756, -0.164781, 0.198007, 0.361973, 0.354641, 0.276006 },
	{ -0.231462, 0.246974, 0.437572, -0.313570, 0.423338, -0.252335, -0.312024, -0.012550, 0.187217 },
	{ 0.327967, 0.213346, 0.750890, -0.355020, 0.596987, -0.559707, -0.260458, -0.055732, -0.290473 },
	{ 0.030209, 0.653323, -0.034078, -0.221355, -0.245167, 0.124003, -0.279345, 0.674803, 0.397381 },
	{ 0.130189, 0.401670, 0.307772, -0.139452, 0.505326, -0.275542, -0.202752, 0.038971, -0.101845 },
	{ -0.291536, -0.079079, 0.634982, -0.107207, 0.367346, 0.240327, -0.335266, -0.253452, 0.112194 },
	{ -0.958588, 0.048374, -0.106335, 0.282325, 0.067682, 0.094276, -0.322673, 0.107803, 0.313796 },
	{ -0.542191, -0.409016, -0.356609, -0.335992, 0.592288, -0.079961, 0.291554, 0.624518, 0.064989 },
	{ -0.839155, 0.129288, 0.079482, -0.138285, 0.085149, 0.299105, -0.161489, 0.104059, -0.034971 },
	{ 0.163271, 0.380417, 0.086965, -0.067013, 0.215761, -0.234336, -0.066273, 0.089416, 0.058976 },
	{ -0.508625, -0.122901, -0.142496, 0.208389, 0.015733, 0.191505, -0.313283, 0.026348, 0.240588 },
	{ 1.031250, 0.241116, -0.379169, 0.705986, -0.050601, 0.057436, -0.101175, -0.243432, -0.297140 },
	{ -1.399812, -0.260247, 0.292296, 0.394939, 0.044682, -0.032071, -0.218770, 0.072034, -0.241021 },
	{ -0.362840, 0.135579, 0.323828, -0.188231, 0.375876, -0.185458, -0.201706, -0.075959, 0.086382 },
	{ -0.246143, 0.036805, 0.299486, -0.353264, 0.745721, 0.136170, 0.031882, 0.828759, 0.371978 },
	{ -0.534655, -0.044555, -0.267537, 0.052990, 0.117638, 0.024189, -0.075233, -0.054592, -0.219943 },
	{ -0.384663, -0.194688, -0.271479, -0.004603, -0.007506, 0.245311, -0.198911, -0.056612, 0.006707 },
	{ -0.018225, 0.005617, 0.019085, 0.060977, 0.019471, -0.007085, -0.012768, 0.026205, -0.007682 },
	{ 1.130007, 0.310384, -1.173248, 0.469563, 0.537320, -0.045626, -0.023092, 0.246638, 0.298816 },
	{ 0.916270, 0.111817, -0.396835, 0.188972, 0.102310, 0.252995, -0.216657, -0.327066, -0.505471 },
	{ -0.210870, -0.065833, -0.537081, 0.643288, 0.268925, -0.313509, -0.318694, 0.560872, -0.541737 },
	{ -0.344248, 0.105942, -0.106572, 0.254829, 0.141547, 0.142476, -0.173330, -0.253360, -0.053384 },
	{ -0.089616, 0.000651, -0.184975, 0.030753, 0.066842, 0.101224, -0.035692, 0.020891, -0.074916 },
};
static double bias3 [NUMBER_OF_HIDDEN2] = { -0.019638, 0.040572, -0.018012, -0.320488, -0.012178, 0.190344, 1.730229, 0.390477, -0.190772, -0.205191, 0.119511, -0.009068, -0.000473, -0.517533, 0.174315, 0.827369, 0.127609, 0.300933, 0.054155, -0.217278 };
static double weightT3 [NUMBER_OF_HIDDEN2] [NUMBER_OF_HIDDEN1] = {
	{ 0.010197, -0.015695, -0.022504, 0.009512, -0.028734, 0.023856, 0.002868, -0.005702, -0.042160, -0.012388, -0.010418, -0.012915, -0.009759, 0.007722, -0.001429, -0.011547, 0.002554, -0.003222, -0.010315, -0.015529, -0.021991, 0.001305, 0.012052, -0.012170, 0.012322, 0.016911, 0.006279, -0.007262, -0.017596, 0.002618, -0.006951, 0.001433, -0.017165, 0.020916, 0.002937, 0.001704, 0.009333, -0.001489, -0.010384, 0.003850, 0.033683, -0.000692, 0.059727, 0.011084, -0.021113, 0.045598, -0.020504, 0.006789, 0.021785, 0.012167, 0.019715, -0.024064, -0.036797, 0.033767, -0.001247, -0.002399, -0.020623, 0.018700, -0.004627, -0.043827, -0.013034, -0.014301, 0.033921, 0.023581, -0.016873, -0.018660, 0.010501, -0.024531, -0.000522, -0.058850, -0.009096, -0.019618, -0.012219, 0.033785, -0.008351, 0.005317, 0.019030, 0.012865, -0.003483, 0.044452, -0.041076, 0.018863, 0.009794, -0.012610, 0.012911, -0.007585, 0.003643, -0.001554, 0.035239, -0.002470, -0.006392, 0.005062, 0.000113, 0.009326, -0.007660, 0.042948, 0.031868, -0.042839, -0.013282, -0.003684 },
	{ -0.012892, -0.020823, -0.066680, -0.019982, 0.047328, 0.065560, -0.140960, 0.039656, 0.131129, 0.090832, 0.020778, -0.059506, 0.000599, -0.015002, -0.003043, -0.074014, -0.009713, -0.001263, -0.252356, 0.027717, 0.038666, 0.171702, -0.003443, 0.000630, 0.136885, -0.163096, 0.031407, 0.002998, -0.131670, -0.024593, 0.067325, -0.050308, -0.042783, 0.012859, -0.034746, -0.038102, 0.058760, -0.028345, -0.141250, 0.134408, -0.016497, -0.007194, -0.187273, -0.015710, 0.123025, -0.244938, 0.131307, -0.095074, -0.058477, -0.061721, -0.050154, 0.078158, -0.129153, -0.082353, 0.002980, -0.013730, 0.019488, -0.001677, -0.020929, 0.097913, 0.043891, -0.157691, -0.049967, -0.053184, 0.029440, -0.089610, -0.090105, -0.043151, 0.072446, -0.082259, -0.023379, -0.036716, 0.086650, -0.020469, 0.059063, -0.051369, -0.048739, -0.006872, 0.137062, 0.048599, -0.065258, 0.075065, 0.076471, -0.177312, -0.180707, -0.095238, 0.041426, -0.105828, -0.200610, -0.061497, 0.118646, -0.265778, 0.000207, -0.036281, -0.008819, -0.189420, -0.180439, 0.221217, 0.028227, 0.029122 },
	{ 0.009939, -0.000384, -0.021641, -0.001857, -0.014272, 0.031950, -0.010848, -0.009874, -0.053219, -0.007572, -0.022906, 0.021690, -0.006842, 0.009685, 0.009768, 0.033716, 0.005652, 0.007032, -0.019760, -0.014174, -0.016648, 0.023786, -0.006551, 0.000155, 0.017397, 0.025853, -0.005726, -0.009356, -0.005890, 0.008472, -0.005960, 0.009457, 0.003130, 0.004788, -0.006464, -0.008841, 0.007339, 0.015313, -0.014539, -0.003857, -0.003271, -0.005830, 0.059690, 0.001889, -0.021605, 0.033918, 0.008678, -0.000006, -0.002634, 0.016162, 0.014414, -0.024367, -0.015301, 0.048487, -0.012930, 0.006108, -0.007066, 0.007167, -0.005438, -0.029519, -0.002958, -0.014584, 0.001057, -0.003570, -0.023730, -0.016361, 0.018269, 0.024190, 0.003909, -0.015039, 0.001060, -0.017033, -0.013150, -0.007497, 0.008225, 0.001918, 0.020178, -0.029182, 0.011653, 0.058642, 0.024049, 0.028300, 0.018069, -0.001343, -0.014740, -0.007045, 0.024359, -0.004151, 0.013666, -0.024707, -0.006138, -0.002839, -0.017705, 0.006876, 0.005004, 0.013818, 0.025935, -0.015261, -0.013230, 0.005420 },
	{ -0.049841, 0.048538, 0.065620, 0.302069, 0.444590, -0.238176, -0.317264, 0.163763, 0.300013, 0.412929, 0.377961, 0.069926, 0.300509, 0.055520, 0.396650, 0.144691, 0.049311, 0.144166, -0.924187, 0.091530, 0.212720, 0.030334, 0.034281, 0.280587, -0.270227, -0.306123, 0.146408, 0.340888, 0.091289, -0.222906, 0.031926, 0.169429, 0.309025, 0.656682, 0.483834, -0.260700, 0.004995, -0.314262, -0.226050, 0.228053, -0.084365, 0.034407, 0.615664, -0.003003, 0.469668, 0.327806, -0.167135, -0.045686, -0.028210, 0.360464, -0.097258, 0.403227, 0.273797, 0.817913, 0.150903, 0.158521, 0.317387, -0.008598, 0.016608, 0.427318, 0.365806, 0.040661, -0.331710, -0.360687, 0.286493, -0.321116, -0.087831, -0.163296, -0.036424, 0.194489, 0.098218, -0.004557, 0.275068, -0.315140, -0.123685, -0.145521, 0.407329, 0.082120, 0.005798, -0.364897, -0.398533, -0.136223, -0.131583, 0.177808, -0.063252, -0.069475, -0.150537, -0.008475, -0.293577, 0.364595, 0.038928, -0.267378, 0.143385, 0.060965, 0.007922, -0.450792, 0.130732, 0.652026, 0.224435, 0.118691 },
	{ 0.007315, 0.002086, -0.007609, 0.005838, 0.009670, 0.002445, -0.006482, 0.009595, 0.004431, 0.000506, -0.004188, 0.007830, 0.007499, -0.005847, -0.009360, -0.008269, 0.006300, 0.005944, 0.001612, 0.006000, -0.002199, 0.008184, -0.000282, -0.003920, -0.002410, -0.009308, 0.001224, -0.008718, 0.002796, -0.006791, -0.008057, 0.000122, 0.004624, -0.005056, -0.004077, 0.003284, 0.007023, -0.000682, 0.004545, 0.001366, -0.009890, -0.009589, -0.000378, 0.007414, -0.005712, 0.000653, 0.008957, -0.009144, -0.003181, 0.002818, 0.006924, 0.004682, -0.000403, -0.003402, -0.009237, 0.008835, -0.002687, 0.001884, -0.009882, -0.009327, 0.004931, -0.008464, -0.000344, -0.000717, -0.003255, 0.004364, -0.004472, -0.005773, -0.003997, -0.010201, 0.006177, -0.004215, -0.009542, -0.004482, -0.006155, -0.004897, -0.001917, -0.008400, -0.004498, -0.006787, 0.006621, -0.007405, 0.007105, -0.002058, 0.000049, 0.008294, -0.002763, 0.007197, 0.000909, -0.003245, 0.007762, -0.003759, -0.000557, -0.001269, 0.006798, 0.006677, -0.004266, -0.007658, -0.008948, 0.002019 },
	{ -0.035536, -0.059457, -0.168792, -0.007044, 0.035158, -0.251426, -0.118379, 0.002223, 0.026447, -0.018541, -0.059752, 0.103622, -0.050747, -0.011241, 0.072148, -0.023586, -0.000375, 0.017073, -0.043682, -0.029040, -0.002102, -0.132306, 0.054718, 0.024008, -0.263382, 0.060724, -0.024281, -0.073925, -0.084659, -0.040312, -0.040535, -0.037265, -0.021002, -0.165813, -0.083063, 0.067657, -0.009841, 0.019941, 0.041768, -0.017464, -0.038298, -0.005599, 0.160962, 0.015229, -0.017791, -0.034634, -0.105165, 0.005758, -0.073867, -0.080799, -0.102234, 0.010505, 0.019493, 0.060276, 0.002737, -0.032253, -0.043721, -0.041624, 0.020696, -0.000516, 0.079182, 0.011959, -0.123843, -0.123730, -0.018207, -0.040961, -0.034357, 0.049405, -0.004696, 0.237442, -0.075315, -0.070325, -0.020772, -0.021285, -0.013542, -0.012525, 0.018871, 0.131845, -0.030441, -0.126821, 0.043427, -0.083058, -0.146452, -0.075526, -0.087606, -0.107684, -0.011110, -0.018201, 0.042715, -0.108141, -0.008593, 0.043546, 0.023195, 0.077047, 0.008938, -0.098266, 0.129305, 0.034202, 0.016812, 0.021835 },
	{ -0.069854, -0.216670, -0.846241, 0.020005, -0.080312, -0.724808, -0.263312, -0.233357, 0.104930, -0.039221, 0.155743, 0.730609, 0.012000, 0.003586, 0.091035, 0.168227, -0.024300, -0.041507, 0.097081, -0.197807, -0.225088, -0.673168, 0.225107, -0.065340, -0.600575, 0.257308, -0.134295, -0.188704, -0.320826, -0.090645, -0.216599, -0.049480, 0.105480, -0.010120, -0.009029, 0.075131, -0.066217, 0.219085, 0.697576, -0.111378, -0.078700, -0.044248, 0.622895, 0.004785, -0.097823, -0.458444, -0.898149, 0.304183, -0.238265, -0.014558, -0.253632, -0.302851, -0.082595, -0.395293, 0.101979, -0.217398, -0.047424, -0.134874, 0.050349, 0.022955, 0.440737, 0.131529, -0.078130, -0.066515, -0.085316, -0.512464, -0.140612, 0.114908, -0.143560, 1.229243, -0.214716, -0.410248, -0.144694, -0.030724, -0.222590, 0.104418, -0.382609, 0.094733, -0.233157, -0.961001, 0.003364, -0.547836, -0.804361, -0.347801, -0.246318, -0.634069, -0.300588, 0.006197, 0.172746, -0.215736, -0.113878, 0.619322, 0.116613, 0.175119, 0.013680, -0.524113, 0.144577, -0.004492, -0.236736, 0.063748 },
	{ -0.017490, -0.101418, -0.186404, -0.044671, 0.100003, -0.010692, -0.261437, 0.048671, 0.268666, 0.119466, 0.065274, -0.086441, -0.008828, -0.040086, 0.186068, -0.150825, -0.075478, -0.013854, -0.407745, -0.002842, 0.035617, 0.123527, 0.025002, 0.097280, -0.110151, -0.242112, 0.087692, -0.103977, -0.276203, -0.076640, 0.020930, -0.067922, -0.016673, -0.094615, -0.101583, -0.139945, 0.068729, -0.064098, -0.172578, 0.159194, -0.029525, -0.012536, -0.238092, -0.034121, 0.133495, 0.269722, 0.050854, -0.120803, 0.011146, -0.262182, -0.054053, 0.030761, -0.025427, -0.029445, -0.013443, -0.048082, 0.160312, 0.004685, -0.005604, 0.146426, 0.094617, -0.096839, -0.162466, -0.178002, 0.167406, -0.111132, -0.087630, -0.116189, 0.061853, -0.102210, -0.077586, -0.124452, 0.053071, 0.000943, 0.045315, -0.061757, 0.079095, -0.132882, 0.125848, -0.015832, -0.163768, 0.041485, 0.076051, -0.197705, -0.242746, -0.210202, 0.007696, -0.040636, -0.151891, -0.190602, 0.101243, -0.345766, -0.021297, -0.057256, 0.010573, -0.312897, -0.165983, 0.382478, 0.054089, 0.034044 },
	{ 0.129009, 0.042691, -0.107780, -0.074147, 0.227454, -0.081157, 0.119975, 0.181454, 0.475773, 0.360155, -0.150046, 0.019155, -0.218522, -0.056686, -0.173819, -0.007238, -0.090699, -0.045164, 0.168494, 0.047360, 0.209306, 0.351999, -0.117374, 0.017717, 0.204916, -0.408978, -0.108101, 0.122456, -0.457570, 0.361063, 0.246341, -0.268017, -0.458544, -0.300735, -0.453961, 0.399111, 0.233676, 0.272180, -0.097366, 0.489492, 0.083609, -0.009619, -0.328510, 0.033072, 0.467540, -1.215568, 0.038522, -0.072455, -0.307504, -0.345665, 0.315489, 0.448091, -0.932859, -0.344647, 0.271883, -0.040516, -0.230668, -0.105666, -0.083081, 0.688274, -0.198795, -0.444922, -0.057952, 0.016556, -0.019913, -0.484535, -0.096437, 0.243785, 0.286162, 0.056326, 0.006291, -0.068286, 0.372921, -0.060737, 0.103898, 0.065853, -0.407569, 0.514565, 0.383980, 0.140719, 0.418200, 0.167134, 0.005444, -0.422340, -0.043573, -0.051301, 0.057496, -0.342169, -0.506634, -0.012257, 0.426993, -0.161275, 0.145835, -0.116211, -0.001778, -0.778162, -0.519287, 0.504949, 0.235382, 0.091016 },
	{ 0.196056, 0.013805, 0.018389, 0.139935, 0.169957, 0.007615, 0.189053, 0.186354, 0.357962, 0.251138, 0.197566, 0.155050, -0.043879, 0.017104, -0.048133, 0.001557, 0.065649, -0.052141, 0.190457, 0.029039, 0.218956, 0.142771, -0.476983, -0.049614, 0.044869, -0.330314, 0.009162, 0.008618, 0.027364, 0.341027, 0.111478, -0.046998, -0.192055, -0.033107, -0.058457, 0.060329, -0.021166, 0.179969, 0.047972, 0.160335, 0.096837, 0.038627, -0.143330, 0.000407, 0.285230, -0.611325, 0.003471, 0.073486, -0.137659, 0.215648, 0.517032, 0.384429, -0.421976, 0.008648, 0.286247, 0.005114, -0.397841, 0.004722, -0.079744, 0.482599, -0.157686, -0.338853, 0.202262, 0.173602, -0.176653, -0.267379, 0.148517, 0.140719, -0.025531, 0.369095, -0.015278, -0.047694, 0.180131, 0.067994, -0.080356, 0.213668, 0.050067, -0.070818, -0.043722, -0.014186, 0.327782, -0.050921, 0.038397, -0.196010, 0.351310, -0.079880, -0.183708, -0.262008, -0.503006, 0.003850, 0.005220, 0.054805, 0.127249, -0.131577, 0.035729, -0.446078, -0.387345, 0.089464, 0.258618, 0.025834 },
	{ 0.190408, -0.012613, 0.189797, 0.042771, 0.192526, -0.048795, 0.423982, 0.067703, 0.340433, 0.115911, 0.254484, 0.357632, 0.061795, 0.042835, 0.067843, -0.242822, 0.090197, -0.091930, 0.225172, 0.108629, 0.130152, -0.549374, 0.345829, -0.030466, -0.149398, -0.210799, 0.164753, -0.086501, -0.213469, 0.162326, 0.004259, -0.043992, -0.062190, 0.272520, 0.058261, -0.290682, -0.141080, -0.026846, 0.184702, -0.102320, 0.435126, 0.075326, 0.001949, -0.050002, 0.137216, -0.385421, -0.276686, 0.323405, 0.048195, 0.282813, 0.476933, 0.174323, -0.330846, 0.165227, 0.025504, 0.105159, -0.341399, 0.143437, 0.045934, 0.238935, -0.148076, 0.305480, 0.175470, 0.127291, -0.139249, 0.106923, 0.233604, -0.318819, -0.193719, -0.539912, -0.031115, -0.144330, 0.039762, 0.089517, -0.168441, 0.182022, 0.435778, -0.526433, -0.245339, -0.286608, -0.233684, -0.195387, -0.495041, 0.025876, 0.633404, -0.116117, -0.248601, 0.090024, -0.312587, 0.421483, -0.219043, 0.461678, 0.312505, 0.181237, 0.055372, -0.390644, -0.247505, 0.165077, 0.118668, 0.006306 },
	{ 0.000426, 0.002613, -0.012805, -0.003416, 0.002152, -0.014068, -0.012614, 0.002077, -0.007926, -0.005230, -0.007197, 0.014411, 0.001726, 0.000838, -0.007545, -0.003518, 0.002507, 0.008694, -0.002886, -0.012693, -0.006907, 0.004538, -0.003685, -0.009159, -0.019020, 0.007352, 0.002323, -0.003309, 0.009918, -0.006046, 0.006035, -0.001310, -0.001851, -0.010358, 0.000319, -0.006081, -0.001482, -0.000416, 0.005401, -0.001844, 0.007878, -0.008756, 0.006533, 0.002596, 0.001171, -0.015746, -0.012539, -0.010084, 0.001659, 0.015145, -0.018813, -0.008520, 0.008760, 0.008296, -0.007138, 0.005774, 0.003964, -0.006252, -0.004036, -0.019500, 0.010894, -0.008494, 0.016788, 0.015962, -0.006960, -0.004379, -0.001583, 0.000037, 0.009830, 0.001119, 0.006344, 0.008655, 0.003382, 0.007099, -0.000665, -0.010652, 0.051644, 0.008861, -0.003527, -0.002086, -0.011387, -0.007558, 0.003528, -0.000217, 0.000024, -0.008670, -0.001606, -0.007281, -0.009657, 0.001107, -0.000989, 0.001300, -0.004512, -0.008703, -0.004262, 0.007492, -0.006928, -0.013997, -0.004811, -0.005003 },
	{ -0.008787, -0.006692, -0.011952, -0.005448, 0.004471, 0.019553, -0.004486, -0.001749, 0.004494, -0.003315, -0.000070, 0.000411, -0.003236, 0.008952, 0.005565, -0.000533, -0.000053, 0.008150, 0.007637, -0.010319, -0.002249, 0.008452, 0.020834, -0.002555, 0.025094, 0.018097, 0.004026, 0.005302, -0.000897, -0.002235, -0.005819, 0.005007, -0.013429, 0.002903, 0.006008, 0.002020, -0.011386, 0.000675, -0.010171, -0.002784, 0.006716, -0.002728, 0.022102, -0.010240, -0.012107, 0.000367, 0.000903, 0.004948, -0.002215, 0.003664, -0.007144, 0.000718, -0.002777, 0.024053, 0.004028, -0.001036, -0.000408, 0.002534, -0.000791, -0.009516, -0.006345, 0.009791, 0.013179, 0.002168, -0.011641, 0.003153, -0.006275, -0.013429, 0.003783, -0.014203, 0.008579, -0.006088, 0.001238, 0.010171, -0.005059, -0.015466, 0.004458, 0.001584, 0.000167, 0.002603, -0.018614, 0.002588, 0.009745, -0.004973, 0.000358, -0.007398, 0.004849, -0.008133, 0.015566, -0.021193, -0.009935, 0.013354, 0.007268, 0.000254, -0.001515, -0.003604, 0.006737, -0.001208, -0.000000, 0.007543 },
	{ -0.037404, 0.054947, 0.214091, -0.151966, 0.283248, -0.316931, -0.563880, 0.167042, 0.455966, 0.209042, -0.170991, -0.234499, -0.009193, -0.066594, -0.162347, -0.065383, -0.098133, 0.007487, -0.588400, 0.084121, 0.164243, 0.039491, 0.180821, 0.088180, -0.335337, 0.121052, -0.095155, 0.093270, -0.240271, -0.069060, 0.009961, -0.055570, -0.038405, -0.082935, -0.077190, -0.117693, 0.145493, -0.108252, -0.255038, 0.335819, -0.093820, 0.000561, 0.111321, -0.033366, 0.243511, -0.050680, -0.117569, -0.144705, -0.033812, -0.399567, -0.092424, 0.143786, -0.015814, -0.310331, 0.101291, 0.097612, -0.004932, -0.083746, 0.030111, 0.114611, 0.102086, 0.244859, -0.324098, -0.324450, 0.111775, -0.396563, -0.262460, -0.067001, 0.152210, -0.142630, 0.079775, 0.063577, 0.120191, -0.213496, 0.058477, -0.171428, 0.109583, -0.148563, 0.243174, 0.050237, -0.116990, 0.135644, -0.100798, 0.157644, -0.457069, 0.096311, 0.039685, 0.130659, 0.056604, 0.198229, 0.269360, -0.474282, 0.254102, 0.202066, -0.008513, 0.002588, 0.318490, 0.122774, 0.162842, 0.094858 },
	{ 0.019475, -0.038984, -0.189279, -0.007279, 0.041660, 0.083645, -0.124315, 0.036402, 0.227660, -0.032037, 0.068242, -0.081100, -0.030389, -0.013751, 0.202564, 0.083167, -0.009882, 0.020721, -0.039945, -0.026015, 0.022104, 0.000019, 0.056115, 0.019996, -0.107720, -0.050999, 0.017563, -0.045572, -0.034254, 0.072408, -0.034000, -0.023288, -0.039428, -0.055399, -0.042630, 0.029249, 0.001939, 0.061875, -0.081984, -0.015995, -0.026970, -0.007250, -0.161376, 0.009488, -0.043900, 0.004068, 0.069113, -0.033908, -0.106025, -0.039212, 0.050417, -0.021873, -0.141209, 0.180450, -0.043922, -0.069326, 0.145938, -0.051083, -0.001135, -0.080292, -0.030516, 0.010565, -0.114208, -0.075854, 0.172175, -0.034867, -0.002193, 0.075944, 0.003474, 0.059951, -0.052387, -0.086679, -0.050740, -0.081038, -0.023031, 0.020509, 0.142018, 0.021538, 0.000213, -0.036174, 0.141039, 0.000916, 0.108001, -0.103743, -0.124239, -0.145207, -0.001729, 0.013350, -0.185008, -0.158842, -0.010705, -0.098110, -0.025640, -0.025313, -0.001538, -0.107196, -0.114961, 0.107771, 0.038871, -0.002844 },
	{ 0.155936, 0.110864, -0.069223, -0.101797, 0.013919, 0.010849, -0.064435, 0.059038, 0.630937, -0.099272, 0.195827, 0.372017, 0.046853, 0.008928, 0.223690, -0.028799, 0.016092, -0.046275, -0.258331, -0.022764, -0.025232, -0.310555, -0.039636, -0.198421, -0.065495, -0.442456, 0.098130, 0.261439, -0.123746, 0.194381, 0.126007, 0.015895, 0.028802, 0.246217, 0.092702, -0.444760, -0.196920, 0.049244, -0.036773, -0.350956, -0.002949, 0.049226, -0.220161, -0.073663, -0.026948, -0.371304, 0.051229, -0.020641, -0.178076, 0.079027, 0.419454, -0.064766, -0.346577, 0.064681, -0.163728, -0.037634, 0.010796, -0.034200, 0.054527, -0.232052, -0.065822, 0.294225, -0.253211, -0.260775, 0.035969, -0.458045, 0.291182, 0.123198, -0.189570, 0.122837, 0.148876, 0.003030, 0.052331, -0.031041, -0.123999, 0.221965, -0.034169, -0.657981, -0.369892, -0.520807, 0.273575, -0.390728, 0.029069, 0.032558, 0.056750, -0.141537, -0.201203, 0.149025, -0.697675, 0.371485, -0.316668, -0.133055, 0.155358, 0.201636, 0.012409, -0.673983, -0.494834, 0.281271, -0.071362, -0.013976 },
	{ -0.041870, 0.009723, 0.050711, -0.028973, -0.040724, -0.017272, -0.060248, -0.032209, 0.052895, 0.003497, -0.023199, -0.067617, -0.008839, -0.016007, 0.081615, 0.092448, -0.030892, -0.006734, -0.004835, 0.008942, -0.022896, -0.077764, -0.000687, 0.015106, -0.154710, 0.042980, -0.045040, 0.044970, 0.019165, -0.030146, -0.032545, -0.006366, 0.010149, -0.051199, -0.012115, 0.051981, 0.002281, 0.015022, -0.057103, 0.000129, -0.071303, -0.028392, 0.001395, -0.009333, 0.005547, 0.067228, 0.028608, -0.043116, 0.001528, -0.098469, -0.083726, -0.040135, -0.013876, -0.007984, -0.008561, 0.024097, 0.157858, -0.044499, 0.008899, -0.083952, -0.037510, 0.039217, -0.023210, -0.021265, 0.144223, -0.020842, -0.064386, 0.084656, -0.016914, -0.003858, 0.014221, 0.036745, -0.015255, -0.006719, -0.017714, -0.068291, -0.184538, 0.024533, -0.029916, -0.090220, 0.101469, -0.064170, 0.016099, 0.089053, -0.104915, 0.063143, -0.015237, 0.076093, 0.115809, 0.039231, 0.001749, -0.054741, -0.013208, -0.015752, 0.009945, -0.102779, 0.043433, 0.000453, -0.015926, -0.013447 },
	{ 0.055489, 0.176238, 0.004209, 0.007117, -0.124064, -0.058041, 0.128630, -0.007827, 0.371595, -0.107644, 0.274376, 0.084728, -0.007516, -0.000451, 0.297194, 0.170151, -0.019292, -0.010370, -0.003988, -0.034363, -0.116453, -0.383496, -0.027872, -0.152223, -0.196608, -0.089204, 0.044802, 0.300175, 0.030361, 0.122291, 0.058538, 0.054505, 0.062648, 0.065355, 0.096725, -0.121603, -0.156050, 0.019692, 0.060589, -0.273553, -0.043826, 0.007417, -0.374031, -0.035698, -0.102725, -0.230688, 0.005724, 0.037713, -0.082773, 0.078507, 0.228612, -0.288914, -0.233851, 0.131985, -0.203031, 0.000560, 0.301575, -0.088953, 0.032343, -0.474808, -0.140832, 0.186763, 0.048624, 0.050417, 0.214668, -0.131742, 0.132565, 0.254777, -0.130913, 0.082590, 0.202765, 0.125975, -0.043999, -0.124726, -0.120314, 0.041629, -0.346906, -0.266423, -0.302679, -0.393793, 0.426073, -0.322143, -0.081867, 0.226212, 0.135610, 0.079653, -0.132540, 0.198237, -0.271526, 0.285051, -0.198859, -0.002636, 0.191250, 0.139576, -0.007731, -0.217331, -0.082279, 0.348778, -0.131579, -0.031636 },
	{ 0.008388, 0.049359, 0.010327, -0.017661, -0.058718, -0.054375, 0.071882, -0.021328, 0.099059, -0.059413, 0.097764, 0.010195, -0.013861, -0.007255, 0.131728, 0.023385, -0.012780, -0.012303, 0.020333, 0.000085, -0.051219, -0.148944, 0.060568, -0.046266, -0.080457, -0.015838, 0.040074, 0.061562, 0.007709, 0.037985, 0.011544, 0.025433, 0.024822, -0.022304, 0.009277, -0.041381, -0.044322, 0.003819, 0.031246, -0.079560, -0.007784, 0.005010, -0.135669, -0.012210, -0.063853, -0.026996, 0.004893, 0.008841, 0.009482, 0.002676, 0.048618, -0.140218, -0.037698, 0.068579, -0.091112, -0.007201, 0.095410, -0.027738, 0.022228, -0.212465, -0.064615, 0.074387, 0.010563, 0.008950, 0.070543, 0.014760, 0.051695, 0.074224, -0.037392, 0.016197, 0.059560, 0.045828, -0.022908, -0.037184, -0.025910, 0.021800, -0.094420, -0.089066, -0.086289, -0.105006, 0.121241, -0.096170, -0.058068, 0.039893, 0.052994, 0.027362, -0.028401, 0.074644, -0.044289, 0.055252, -0.051498, -0.016521, 0.048976, 0.058063, -0.007386, -0.023159, -0.031888, 0.132791, -0.059429, -0.014143 },
	{ 0.007920, -0.093733, -0.048588, -0.089595, 0.085860, -0.279115, -0.235614, 0.041910, 0.076143, 0.147801, -0.110037, 0.110248, -0.019642, -0.049977, 0.131651, -0.130022, -0.075743, 0.035739, -0.067370, -0.004254, 0.073097, -0.019222, 0.027499, 0.083521, -0.398909, 0.009836, -0.055338, -0.139270, -0.181286, 0.033383, -0.035314, -0.066764, 0.020083, -0.168205, -0.107852, -0.000399, 0.115829, 0.012071, -0.108174, 0.242956, -0.071586, -0.000371, 0.139271, -0.013741, 0.160778, 0.332239, -0.065697, -0.060325, -0.056106, -0.289531, 0.003588, 0.069149, 0.157927, 0.329598, 0.057555, 0.015669, 0.171265, -0.027220, 0.005500, 0.026325, 0.200861, 0.016166, -0.111638, -0.119038, 0.103608, -0.012421, -0.084101, 0.027362, 0.093906, 0.094702, -0.079203, -0.110933, 0.048308, -0.117009, 0.016968, -0.011162, 0.606382, 0.048869, 0.192787, 0.009007, 0.028675, 0.049474, -0.024723, -0.046924, -0.221197, -0.110979, 0.046665, -0.030458, 0.085008, -0.007377, 0.188596, -0.198792, 0.004789, 0.000093, 0.006357, -0.115624, 0.174761, 0.171041, 0.083780, 0.025793 },
};
static double bias5 [NUMBER_OF_EMOTIONS] = { -0.610670, 1.626881, -2.806679, -2.177415, 3.969266 };
static double weightT5 [NUMBER_OF_EMOTIONS] [NUMBER_OF_HIDDEN2] = {
	{ -0.000234, 0.092880, 0.014604, 0.890714, 0.009525, -0.374728, -1.753625, 0.531473, -0.597926, 0.443253, 0.658082, -0.040469, 0.005246, -1.112493, 0.444537, 1.070785, 0.093743, 0.645647, 0.230551, -0.228341 },
	{ -0.100617, 0.282164, -0.046990, -1.583069, -0.002577, 0.138982, 1.024672, 0.314422, 0.801165, -0.001687, -1.442725, 0.001870, -0.008870, 0.308176, 0.259968, -0.847263, 0.304372, 0.512184, 0.181040, 0.402543 },
	{ -0.052759, 0.219111, -0.053047, 1.484016, -0.008006, 0.520626, 0.726455, 0.340660, 0.025443, -0.656647, -0.200661, 0.059733, -0.013322, 0.706416, -0.037154, 0.249353, 0.111074, 0.110045, -0.065610, 0.570545 },
	{ 0.024748, 0.092791, -0.054959, -0.993511, 0.009407, 0.077729, 1.674045, -0.308878, 1.404128, 0.790548, 0.492141, -0.014050, -0.027123, 0.183812, -0.277875, 1.037229, -0.140533, 0.037054, 0.008376, -0.730278 },
	{ 0.136664, -0.687536, 0.131919, 0.203791, 0.008134, -0.345336, -1.663720, -0.879486, -1.655902, -0.584601, 0.490522, -0.007068, 0.054708, -0.082042, -0.397438, -1.500706, -0.363018, -1.290499, -0.338877, -0.036275 },
};

/* End of file Network9-100-20.h */
#endif
